{"W":[[2.252993313192818,-0.7929095763424479,-0.755736706438361,-0.7043470304120091],[1.5588855144843698,-0.4839215328175793,-0.46993221830423765,-0.6050317633625544],[0.7794427572421849,-0.24196076640878963,-0.23496610915211885,-0.3025158816812772],[1.1752615573756555,-0.6564490687777157,-0.6382536787521562,0.11944119015421596],[2.252993313192818,-0.7929095763424479,-0.755736706438361,-0.7043470304120091],[2.252993313192818,-0.7929095763424479,-0.755736706438361,-0.7043470304120091],[0.7794427572421849,-0.24196076640878966,-0.23496610915211882,-0.30251588168127713],[-0.8413831469986407,2.319375278225392,-0.7650035838802002,-0.7129885473465536],[-0.8413831469986407,2.319375278225392,-0.7650035838802002,-0.7129885473465536],[-0.8413831469986407,2.319375278225392,-0.7650035838802002,-0.7129885473465536],[-0.961155799065113,-0.9227417777615533,2.7224916879564516,-0.8385941111297891],[-0.34234977569293407,-0.3306142722283767,0.9808241294057454,-0.3078600814844333],[-0.8569295018576568,-0.8175188263414273,2.4001899085886764,-0.7257415803895932],[-0.26638346861332163,-0.2709634228057464,-0.26381669306532735,0.8011635844843957],[-0.26638346861332163,-0.2709634228057464,-0.26381669306532735,0.8011635844843957],[-0.9743831390844131,-0.7736755511640864,-0.7533022079187843,2.501360898167291],[-0.32437571336237714,-0.33018459239820375,-0.3211640544055391,0.9757243601661207],[-0.20310779897643214,-0.20732804330044016,-0.20100533477778945,0.611441177054661],[-0.07396158223728923,-0.07443245353836893,-0.07337342916780726,0.22176746494346555],[-0.07396158223728923,-0.07443245353836893,-0.07337342916780726,0.22176746494346555],[-0.07396158223728923,-0.07443245353836893,-0.07337342916780726,0.22176746494346555],[-0.19522949662323424,-0.19728900263613258,-0.19353214879555655,0.5860506480549236],[-0.07396158223728923,-0.07443245353836893,-0.07337342916780726,0.22176746494346555],[-0.383623957108715,-0.17252753596013595,-0.16832146044791937,0.7244729535167714],[-0.383623957108715,-0.17252753596013595,-0.16832146044791937,0.7244729535167714],[-0.12126791438594514,-0.12285654909776363,-0.12015871962774932,0.36428318311145824],[-0.12126791438594514,-0.12285654909776363,-0.12015871962774932,0.36428318311145824]],"b":[0.1875779733162321,0.09884621359776213,-0.04142335628959811,-0.2450008306243962]}